digraph Tree {
node [shape=box, style="filled", color="black"] ;
0 [label="Initial_2 <= 0.5\ngini = 0.473\nsamples = 891\nvalue = [549, 342]\nclass = 사망", fillcolor="#f5cfb4"] ;
1 [label="Pclass_3 <= 0.5\ngini = 0.418\nsamples = 369\nvalue = [110, 259]\nclass = 생존", fillcolor="#8dc7f0"] ;
0 -> 1 [labeldistance=2.5, labelangle=45, headlabel="True"] ;
2 [label="Initial_4 <= 0.5\ngini = 0.19\nsamples = 197\nvalue = [21, 176]\nclass = 생존", fillcolor="#51a9e8"] ;
1 -> 2 ;
3 [label="Sex <= 0.5\ngini = 0.129\nsamples = 188\nvalue = [13, 175]\nclass = 생존", fillcolor="#48a4e7"] ;
2 -> 3 ;
4 [label="Initial_0 <= 0.5\ngini = 0.346\nsamples = 18\nvalue = [4, 14]\nclass = 생존", fillcolor="#72b9ec"] ;
3 -> 4 ;
5 [label="gini = 0.444\nsamples = 6\nvalue = [4, 2]\nclass = 사망", fillcolor="#f2c09c"] ;
4 -> 5 ;
6 [label="gini = 0.0\nsamples = 12\nvalue = [0, 12]\nclass = 생존", fillcolor="#399de5"] ;
4 -> 6 ;
7 [label="Age <= 2.5\ngini = 0.1\nsamples = 170\nvalue = [9, 161]\nclass = 생존", fillcolor="#44a2e6"] ;
3 -> 7 ;
8 [label="gini = 0.5\nsamples = 2\nvalue = [1, 1]\nclass = 사망", fillcolor="#ffffff"] ;
7 -> 8 ;
9 [label="gini = 0.091\nsamples = 168\nvalue = [8, 160]\nclass = 생존", fillcolor="#43a2e6"] ;
7 -> 9 ;
10 [label="Embarked_0 <= 0.5\ngini = 0.198\nsamples = 9\nvalue = [8, 1]\nclass = 사망", fillcolor="#e89152"] ;
2 -> 10 ;
11 [label="gini = 0.0\nsamples = 8\nvalue = [8, 0]\nclass = 사망", fillcolor="#e58139"] ;
10 -> 11 ;
12 [label="gini = 0.0\nsamples = 1\nvalue = [0, 1]\nclass = 생존", fillcolor="#399de5"] ;
10 -> 12 ;
13 [label="Family_Size <= 4.5\ngini = 0.499\nsamples = 172\nvalue = [89, 83]\nclass = 사망", fillcolor="#fdf7f2"] ;
1 -> 13 ;
14 [label="Age <= 27.5\ngini = 0.47\nsamples = 127\nvalue = [48, 79]\nclass = 생존", fillcolor="#b1d9f5"] ;
13 -> 14 ;
15 [label="Age <= 7.5\ngini = 0.433\nsamples = 104\nvalue = [33, 71]\nclass = 생존", fillcolor="#95cbf1"] ;
14 -> 15 ;
16 [label="gini = 0.117\nsamples = 16\nvalue = [1, 15]\nclass = 생존", fillcolor="#46a4e7"] ;
15 -> 16 ;
17 [label="gini = 0.463\nsamples = 88\nvalue = [32, 56]\nclass = 생존", fillcolor="#aad5f4"] ;
15 -> 17 ;
18 [label="Fare <= 8.673\ngini = 0.454\nsamples = 23\nvalue = [15, 8]\nclass = 사망", fillcolor="#f3c4a3"] ;
14 -> 18 ;
19 [label="gini = 0.0\nsamples = 5\nvalue = [5, 0]\nclass = 사망", fillcolor="#e58139"] ;
18 -> 19 ;
20 [label="gini = 0.494\nsamples = 18\nvalue = [10, 8]\nclass = 사망", fillcolor="#fae6d7"] ;
18 -> 20 ;
21 [label="Fare <= 14.5\ngini = 0.162\nsamples = 45\nvalue = [41, 4]\nclass = 사망", fillcolor="#e88d4c"] ;
13 -> 21 ;
22 [label="gini = 0.0\nsamples = 1\nvalue = [0, 1]\nclass = 생존", fillcolor="#399de5"] ;
21 -> 22 ;
23 [label="Family_Size <= 6.5\ngini = 0.127\nsamples = 44\nvalue = [41, 3]\nclass = 사망", fillcolor="#e78a47"] ;
21 -> 23 ;
24 [label="gini = 0.0\nsamples = 25\nvalue = [25, 0]\nclass = 사망", fillcolor="#e58139"] ;
23 -> 24 ;
25 [label="gini = 0.266\nsamples = 19\nvalue = [16, 3]\nclass = 사망", fillcolor="#ea995e"] ;
23 -> 25 ;
26 [label="Fare <= 26.269\ngini = 0.267\nsamples = 522\nvalue = [439, 83]\nclass = 사망", fillcolor="#ea995e"] ;
0 -> 26 [labeldistance=2.5, labelangle=-45, headlabel="False"] ;
27 [label="Deck_4 <= 0.5\ngini = 0.18\nsamples = 390\nvalue = [351, 39]\nclass = 사망", fillcolor="#e88f4f"] ;
26 -> 27 ;
28 [label="Deck_3 <= 0.5\ngini = 0.177\nsamples = 388\nvalue = [350, 38]\nclass = 사망", fillcolor="#e88f4e"] ;
27 -> 28 ;
29 [label="Age <= 32.5\ngini = 0.173\nsamples = 386\nvalue = [349, 37]\nclass = 사망", fillcolor="#e88e4e"] ;
28 -> 29 ;
30 [label="gini = 0.199\nsamples = 286\nvalue = [254, 32]\nclass = 사망", fillcolor="#e89152"] ;
29 -> 30 ;
31 [label="gini = 0.095\nsamples = 100\nvalue = [95, 5]\nclass = 사망", fillcolor="#e68843"] ;
29 -> 31 ;
32 [label="Embarked_2 <= 0.5\ngini = 0.5\nsamples = 2\nvalue = [1, 1]\nclass = 사망", fillcolor="#ffffff"] ;
28 -> 32 ;
33 [label="gini = 0.0\nsamples = 1\nvalue = [1, 0]\nclass = 사망", fillcolor="#e58139"] ;
32 -> 33 ;
34 [label="gini = 0.0\nsamples = 1\nvalue = [0, 1]\nclass = 생존", fillcolor="#399de5"] ;
32 -> 34 ;
35 [label="Fare <= 16.819\ngini = 0.5\nsamples = 2\nvalue = [1, 1]\nclass = 사망", fillcolor="#ffffff"] ;
27 -> 35 ;
36 [label="gini = 0.0\nsamples = 1\nvalue = [0, 1]\nclass = 생존", fillcolor="#399de5"] ;
35 -> 36 ;
37 [label="gini = 0.0\nsamples = 1\nvalue = [1, 0]\nclass = 사망", fillcolor="#e58139"] ;
35 -> 37 ;
38 [label="Fare <= 26.775\ngini = 0.444\nsamples = 132\nvalue = [88, 44]\nclass = 사망", fillcolor="#f2c09c"] ;
26 -> 38 ;
39 [label="Age <= 53.5\ngini = 0.457\nsamples = 17\nvalue = [6, 11]\nclass = 생존", fillcolor="#a5d2f3"] ;
38 -> 39 ;
40 [label="Deck_1 <= 0.5\ngini = 0.26\nsamples = 13\nvalue = [2, 11]\nclass = 생존", fillcolor="#5dafea"] ;
39 -> 40 ;
41 [label="gini = 0.153\nsamples = 12\nvalue = [1, 11]\nclass = 생존", fillcolor="#4ba6e7"] ;
40 -> 41 ;
42 [label="gini = 0.0\nsamples = 1\nvalue = [1, 0]\nclass = 사망", fillcolor="#e58139"] ;
40 -> 42 ;
43 [label="gini = 0.0\nsamples = 4\nvalue = [4, 0]\nclass = 사망", fillcolor="#e58139"] ;
39 -> 43 ;
44 [label="Deck_7 <= 0.5\ngini = 0.409\nsamples = 115\nvalue = [82, 33]\nclass = 사망", fillcolor="#efb489"] ;
38 -> 44 ;
45 [label="Age <= 43.5\ngini = 0.469\nsamples = 72\nvalue = [45, 27]\nclass = 사망", fillcolor="#f5cdb0"] ;
44 -> 45 ;
46 [label="gini = 0.5\nsamples = 41\nvalue = [21, 20]\nclass = 사망", fillcolor="#fef9f6"] ;
45 -> 46 ;
47 [label="gini = 0.35\nsamples = 31\nvalue = [24, 7]\nclass = 사망", fillcolor="#eda673"] ;
45 -> 47 ;
48 [label="Family_Group_0 <= 0.5\ngini = 0.24\nsamples = 43\nvalue = [37, 6]\nclass = 사망", fillcolor="#e99559"] ;
44 -> 48 ;
49 [label="gini = 0.0\nsamples = 23\nvalue = [23, 0]\nclass = 사망", fillcolor="#e58139"] ;
48 -> 49 ;
50 [label="gini = 0.42\nsamples = 20\nvalue = [14, 6]\nclass = 사망", fillcolor="#f0b78e"] ;
48 -> 50 ;
}